digraph Tree {
node [shape=box, style="filled, rounded", color="black", fontname=helvetica] ;
edge [fontname=helvetica] ;
0 [label="X[0] <= 3.5\nentropy = 2.536\nsamples = 169508\nvalue = [18196, 90944, 24311, 25301, 25847, 20639, 29230]", fillcolor="#e9f7c3"] ;
1 [label="X[0] <= 1.5\nentropy = 2.548\nsamples = 33173\nvalue = [4330.0, 17664.5, 4563.0, 4703.0, 4700.0, 4491.0, 5339.0]", fillcolor="#e9f7c3"] ;
0 -> 1 [labeldistance=2.5, labelangle=45, headlabel="True"] ;
2 [label="X[0] <= 0.5\nentropy = 2.519\nsamples = 10952\nvalue = [1224.0, 6072.5, 1613.0, 1640.0, 1574.0, 1295.0, 1871.0]", fillcolor="#e8f7c1"] ;
1 -> 2 ;
3 [label="entropy = 2.525\nsamples = 8689\nvalue = [1019, 4781, 1203, 1295, 1246, 1062, 1498]", fillcolor="#e9f7c2"] ;
2 -> 3 ;
4 [label="entropy = 2.487\nsamples = 2263\nvalue = [205.0, 1291.5, 410.0, 345.0, 328.0, 233.0, 373.0]", fillcolor="#e8f7c0"] ;
2 -> 4 ;
5 [label="X[0] <= 2.5\nentropy = 2.559\nsamples = 22221\nvalue = [3106, 11592, 2950, 3063, 3126, 3196, 3468]", fillcolor="#e9f7c3"] ;
1 -> 5 ;
6 [label="entropy = 2.556\nsamples = 10395\nvalue = [1476, 5460, 1418, 1451, 1393, 1541, 1556]", fillcolor="#e9f7c2"] ;
5 -> 6 ;
7 [label="entropy = 2.562\nsamples = 11826\nvalue = [1630, 6132, 1532, 1612, 1733, 1655, 1912]", fillcolor="#eaf7c5"] ;
5 -> 7 ;
8 [label="X[0] <= 16.5\nentropy = 2.531\nsamples = 136335\nvalue = [13866.0, 73279.5, 19748.0, 20598.0, 21147.0, 16148.0\n23891.0]", fillcolor="#e9f7c4"] ;
0 -> 8 [labeldistance=2.5, labelangle=-45, headlabel="False"] ;
9 [label="X[0] <= 4.5\nentropy = 2.526\nsamples = 120076\nvalue = [12035, 65023, 17488, 18136, 18705, 13989, 21145]", fillcolor="#e9f7c3"] ;
8 -> 9 ;
10 [label="entropy = 2.475\nsamples = 12561\nvalue = [1115, 7343, 1753, 1931, 2026, 1376, 2262]", fillcolor="#e7f7be"] ;
9 -> 10 ;
11 [label="entropy = 2.532\nsamples = 107515\nvalue = [10920, 57680, 15735, 16205, 16679, 12613, 18883]", fillcolor="#e9f7c4"] ;
9 -> 11 ;
12 [label="X[0] <= 17.5\nentropy = 2.567\nsamples = 16259\nvalue = [1831.0, 8256.5, 2260.0, 2462.0, 2442.0, 2159.0, 2746.0]", fillcolor="#ebf8c7"] ;
8 -> 12 ;
13 [label="entropy = 2.597\nsamples = 5851\nvalue = [743, 2807, 778, 910, 833, 788, 997]", fillcolor="#ecf8cb"] ;
12 -> 13 ;
14 [label="entropy = 2.549\nsamples = 10408\nvalue = [1088.0, 5449.5, 1482.0, 1552.0, 1609.0, 1371.0, 1749.0]", fillcolor="#eaf7c5"] ;
12 -> 14 ;
}